<?xml version="1.0"?>
<opencv_storage>
<cascade>
  <stageType>BOOST</stageType>
  <featureType>HAAR</featureType>
  <height>24</height>
  <width>24</width>
  <stageParams>
    <boostType>GAB</boostType>
    <minHitRate>9.9500000476837158e-01</minHitRate>
    <maxFalseAlarm>5.0000000000000000e-01</maxFalseAlarm>
    <weightTrimRate>9.4999999999999996e-01</weightTrimRate>
    <maxDepth>1</maxDepth>
    <maxWeakCount>100</maxWeakCount></stageParams>
  <featureParams>
    <maxCatCount>0</maxCatCount>
    <featSize>1</featSize>
    <mode>BASIC</mode></featureParams>
  <stageNum>13</stageNum>
  <stages>
    <!-- stage 0 -->
    <_>
      <maxWeakCount>3</maxWeakCount>
      <stageThreshold>-1.2167899608612061e+00</stageThreshold>
      <weakClassifiers>
        <_>
          <internalNodes>
            0 -1 54 -6.1880331486463547e-02</internalNodes>
          <leafValues>
            7.2753071784973145e-01 -9.1044777631759644e-01</leafValues></_>
        <_>
          <internalNodes>
            0 -1 125 2.4930477142333984e-02</internalNodes>
          <leafValues>
            -8.6954224109649658e-01 3.5593068599700928e-01</leafValues></_>
        <_>
          <internalNodes>
            0 -1 7 5.5559739470481873e-02</internalNodes>
          <leafValues>
            -6.6227293014526367e-01 6.1660224199295044e-01</leafValues></_></weakClassifiers></_>
    <!-- stage 1 -->
    <_>
      <maxWeakCount>5</maxWeakCount>
      <stageThreshold>-1.1523913145065308e+00</stageThreshold>
      <weakClassifiers>
        <_>
          <internalNodes>
            0 -1 54 -8.0336838960647583e-02</internalNodes>
          <leafValues>
            3.9613121747970581e-01 -8.1225842237472534e-01</leafValues></_>
        <_>
          <internalNodes>
            0 -1 65 1.1754348874092102e-02</internalNodes>
          <leafValues>
            -5.9641069173812866e-01 6.0151547193527222e-01</leafValues></_>
        <_>
          <internalNodes>
            0 -1 129 -1.3433845713734627e-02</internalNodes>
          <leafValues>
            5.7855868339538574e-01 -5.0222951173782349e-01</leafValues></_>
        <_>
          <internalNodes>
            0 -1 36 1.6352284699678421e-02</internalNodes>
          <leafValues>
            -8.7510496377944946e-01 3.3190518617630005e-01</leafValues></_>
        <_>
          <internalNodes>
            0 -1 17 7.1796397678554058e-03</internalNodes>
          <leafValues>
            -5.1463788747787476e-01 5.5282407999038696e-01</leafValues></_></weakClassifiers></_>
    <!-- stage 2 -->
    <_>
      <maxWeakCount>8</maxWeakCount>
      <stageThreshold>-1.6391295194625854e+00</stageThreshold>
      <weakClassifiers>
        <_>
          <internalNodes>
            0 -1 20 -2.3771792650222778e-02</internalNodes>
          <leafValues>
            3.4870848059654236e-01 -7.1920669078826904e-01</leafValues></_>
        <_>
          <internalNodes>
            0 -1 51 1.2477310374379158e-02</internalNodes>
          <leafValues>
            -5.3485578298568726e-01 4.4671609997749329e-01</leafValues></_>
        <_>
          <internalNodes>
            0 -1 39 7.7069979161024094e-03</internalNodes>
          <leafValues>
            -4.6683681011199951e-01 4.9112465977668762e-01</leafValues></_>
        <_>
          <internalNodes>
            0 -1 37 3.9095252752304077e-02</internalNodes>
          <leafValues>
            -8.1469517946243286e-01 2.7903237938880920e-01</leafValues></_>
        <_>
          <internalNodes>
            0 -1 5 9.5356047153472900e-02</internalNodes>
          <leafValues>
            -3.5738652944564819e-01 6.0775256156921387e-01</leafValues></_>
        <_>
          <internalNodes>
            0 -1 112 1.0389158502221107e-02</internalNodes>
          <leafValues>
            -5.5227166414260864e-01 3.4315961599349976e-01</leafValues></_>
        <_>
          <internalNodes>
            0 -1 140 -2.3263223469257355e-02</internalNodes>
          <leafValues>
            5.2344202995300293e-01 -3.3787718415260315e-01</leafValues></_>
        <_>
          <internalNodes>
            0 -1 13 2.2049117833375931e-03</internalNodes>
          <leafValues>
            -8.0607730150222778e-01 1.8895344436168671e-01</leafValues></_></weakClassifiers></_>
    <!-- stage 3 -->
    <_>
      <maxWeakCount>9</maxWeakCount>
      <stageThreshold>-1.4836854934692383e+00</stageThreshold>
      <weakClassifiers>
        <_>
          <internalNodes>
            0 -1 7 8.2366302609443665e-02</internalNodes>
          <leafValues>
            -6.6024690866470337e-01 3.4564101696014404e-01</leafValues></_>
        <_>
          <internalNodes>
            0 -1 41 -5.4864473640918732e-02</internalNodes>
          <leafValues>
            3.7720271944999695e-01 -5.7874947786331177e-01</leafValues></_>
        <_>
          <internalNodes>
            0 -1 124 -6.3172439113259315e-03</internalNodes>
          <leafValues>
            4.7465008497238159e-01 -3.9271041750907898e-01</leafValues></_>
        <_>
          <internalNodes>
            0 -1 139 -5.9779705479741096e-03</internalNodes>
          <leafValues>
            3.4152382612228394e-01 -4.9926915764808655e-01</leafValues></_>
        <_>
          <internalNodes>
            0 -1 48 8.1676626577973366e-03</internalNodes>
          <leafValues>
            -3.8900783658027649e-01 4.3065449595451355e-01</leafValues></_>
        <_>
          <internalNodes>
            0 -1 2 4.8631735146045685e-02</internalNodes>
          <leafValues>
            -2.9030948877334595e-01 6.0892045497894287e-01</leafValues></_>
        <_>
          <internalNodes>
            0 -1 24 -4.0891221724450588e-03</internalNodes>
          <leafValues>
            2.4854956567287445e-01 -6.6543489694595337e-01</leafValues></_>
        <_>
          <internalNodes>
            0 -1 50 -5.0011780112981796e-03</internalNodes>
          <leafValues>
            -8.5011404752731323e-01 1.4789070188999176e-01</leafValues></_>
        <_>
          <internalNodes>
            0 -1 87 -2.2368100471794605e-03</internalNodes>
          <leafValues>
            -7.3028784990310669e-01 1.9759014248847961e-01</leafValues></_></weakClassifiers></_>
    <!-- stage 4 -->
    <_>
      <maxWeakCount>11</maxWeakCount>
      <stageThreshold>-1.5531727075576782e+00</stageThreshold>
      <weakClassifiers>
        <_>
          <internalNodes>
            0 -1 143 -1.3299435377120972e-02</internalNodes>
          <leafValues>
            2.1730950474739075e-01 -6.3551884889602661e-01</leafValues></_>
        <_>
          <internalNodes>
            0 -1 21 -1.1693047359585762e-02</internalNodes>
          <leafValues>
            3.1981441378593445e-01 -5.3004759550094604e-01</leafValues></_>
        <_>
          <internalNodes>
            0 -1 45 8.3059389144182205e-03</internalNodes>
          <leafValues>
            -3.8368314504623413e-01 4.4277718663215637e-01</leafValues></_>
        <_>
          <internalNodes>
            0 -1 64 3.0106943100690842e-02</internalNodes>
          <leafValues>
            -3.2575920224189758e-01 5.0748640298843384e-01</leafValues></_>
        <_>
          <internalNodes>
            0 -1 99 9.1146519407629967e-03</internalNodes>
          <leafValues>
            -7.3739153146743774e-01 2.9229816794395447e-01</leafValues></_>
        <_>
          <internalNodes>
            0 -1 43 -5.5701378732919693e-04</internalNodes>
          <leafValues>
            1.3710820674896240e-01 -7.8780901432037354e-01</leafValues></_>
        <_>
          <internalNodes>
            0 -1 73 -2.2576734423637390e-02</internalNodes>
          <leafValues>
            2.0364192128181458e-01 -5.5868458747863770e-01</leafValues></_>
        <_>
          <internalNodes>
            0 -1 19 6.5031200647354126e-02</internalNodes>
          <leafValues>
            -2.3690684139728546e-01 5.9423309564590454e-01</leafValues></_>
        <_>
          <internalNodes>
            0 -1 15 1.8396617844700813e-02</internalNodes>
          <leafValues>
            2.3735028505325317e-01 -6.7849767208099365e-01</leafValues></_>
        <_>
          <internalNodes>
            0 -1 92 1.5101248864084482e-03</internalNodes>
          <leafValues>
            -3.1481188535690308e-01 4.9027720093727112e-01</leafValues></_>
        <_>
          <internalNodes>
            0 -1 34 -3.4577604383230209e-03</internalNodes>
          <leafValues>
            -6.2475430965423584e-01 2.0345808565616608e-01</leafValues></_></weakClassifiers></_>
    <!-- stage 5 -->
    <_>
      <maxWeakCount>12</maxWeakCount>
      <stageThreshold>-1.7522157430648804e+00</stageThreshold>
      <weakClassifiers>
        <_>
          <internalNodes>
            0 -1 3 1.0983182489871979e-01</internalNodes>
          <leafValues>
            -5.5505818128585815e-01 3.1331592798233032e-01</leafValues></_>
        <_>
          <internalNodes>
            0 -1 122 3.2158993184566498e-02</internalNodes>
          <leafValues>
            -5.1621186733245850e-01 3.7722441554069519e-01</leafValues></_>
        <_>
          <internalNodes>
            0 -1 83 1.6343656927347183e-02</internalNodes>
          <leafValues>
            2.2957901656627655e-01 -6.6281038522720337e-01</leafValues></_>
        <_>
          <internalNodes>
            0 -1 58 9.1652469709515572e-03</internalNodes>
          <leafValues>
            -5.9703034162521362e-01 2.9740080237388611e-01</leafValues></_>
        <_>
          <internalNodes>
            0 -1 82 -2.6667013298720121e-03</internalNodes>
          <leafValues>
            3.9490470290184021e-01 -3.4264373779296875e-01</leafValues></_>
        <_>
          <internalNodes>
            0 -1 126 1.0853301733732224e-02</internalNodes>
          <leafValues>
            -6.1678671836853027e-01 1.8146586418151855e-01</leafValues></_>
        <_>
          <internalNodes>
            0 -1 78 2.0881423726677895e-02</internalNodes>
          <leafValues>
            -2.5038808584213257e-01 5.2881616353988647e-01</leafValues></_>
        <_>
          <internalNodes>
            0 -1 131 -1.0836539417505264e-01</internalNodes>
          <leafValues>
            7.0174878835678101e-01 -1.4872770011425018e-01</leafValues></_>
        <_>
          <internalNodes>
            0 -1 72 -4.1076941415667534e-03</internalNodes>
          <leafValues>
            -8.7930035591125488e-01 1.3457238674163818e-01</leafValues></_>
        <_>
          <internalNodes>
            0 -1 72 3.9558918215334415e-03</internalNodes>
          <leafValues>
            1.4427201449871063e-01 -6.5390509366989136e-01</leafValues></_>
        <_>
          <internalNodes>
            0 -1 103 1.3614858034998178e-03</internalNodes>
          <leafValues>
            -2.7015787363052368e-01 4.1009274125099182e-01</leafValues></_>
        <_>
          <internalNodes>
            0 -1 149 -2.2727861069142818e-03</internalNodes>
          <leafValues>
            -7.9193609952926636e-01 1.4193426072597504e-01</leafValues></_></weakClassifiers></_>
    <!-- stage 6 -->
    <_>
      <maxWeakCount>12</maxWeakCount>
      <stageThreshold>-1.5314956903457642e+00</stageThreshold>
      <weakClassifiers>
        <_>
          <internalNodes>
            0 -1 4 4.0360257029533386e-02</internalNodes>
          <leafValues>
            -5.9349590539932251e-01 1.6279070079326630e-01</leafValues></_>
        <_>
          <internalNodes>
            0 -1 47 -1.2808419764041901e-02</internalNodes>
          <leafValues>
            3.9003592729568481e-01 -3.7695443630218506e-01</leafValues></_>
        <_>
          <internalNodes>
            0 -1 67 7.1364771574735641e-03</internalNodes>
          <leafValues>
            -3.3975970745086670e-01 3.8560533523559570e-01</leafValues></_>
        <_>
          <internalNodes>
            0 -1 133 9.7867297008633614e-03</internalNodes>
          <leafValues>
            -8.2349824905395508e-01 1.6055516898632050e-01</leafValues></_>
        <_>
          <internalNodes>
            0 -1 60 -5.7611260563135147e-03</internalNodes>
          <leafValues>
            4.4283553957939148e-01 -2.7199035882949829e-01</leafValues></_>
        <_>
          <internalNodes>
            0 -1 23 3.8345884531736374e-03</internalNodes>
          <leafValues>
            -7.4481713771820068e-01 1.5097641944885254e-01</leafValues></_>
        <_>
          <internalNodes>
            0 -1 150 -1.7578855156898499e-02</internalNodes>
          <leafValues>
            4.6376869082450867e-01 -2.5756457448005676e-01</leafValues></_>
        <_>
          <internalNodes>
            0 -1 30 -2.7766535058617592e-03</internalNodes>
          <leafValues>
            -7.8295266628265381e-01 1.5581429004669189e-01</leafValues></_>
        <_>
          <internalNodes>
            0 -1 107 -8.2133691757917404e-03</internalNodes>
          <leafValues>
            6.5751647949218750e-01 -1.9488930702209473e-01</leafValues></_>
        <_>
          <internalNodes>
            0 -1 26 3.3687674440443516e-03</internalNodes>
          <leafValues>
            1.6018167138099670e-01 -7.9372942447662354e-01</leafValues></_>
        <_>
          <internalNodes>
            0 -1 117 1.4602974988520145e-03</internalNodes>
          <leafValues>
            -2.5677564740180969e-01 4.6686547994613647e-01</leafValues></_>
        <_>
          <internalNodes>
            0 -1 146 3.1074322760105133e-03</internalNodes>
          <leafValues>
            1.3240672647953033e-01 -7.7134048938751221e-01</leafValues></_></weakClassifiers></_>
    <!-- stage 7 -->
    <_>
      <maxWeakCount>14</maxWeakCount>
      <stageThreshold>-1.7196460962295532e+00</stageThreshold>
      <weakClassifiers>
        <_>
          <internalNodes>
            0 -1 1 5.5740706622600555e-02</internalNodes>
          <leafValues>
            -5.3282713890075684e-01 2.5361368060112000e-01</leafValues></_>
        <_>
          <internalNodes>
            0 -1 62 -2.0443750545382500e-02</internalNodes>
          <leafValues>
            2.1261486411094666e-01 -6.6201549768447876e-01</leafValues></_>
        <_>
          <internalNodes>
            0 -1 42 4.2423745617270470e-03</internalNodes>
          <leafValues>
            -5.5217319726943970e-01 1.9718492031097412e-01</leafValues></_>
        <_>
          <internalNodes>
            0 -1 100 -4.8448969610035419e-03</internalNodes>
          <leafValues>
            5.2564102411270142e-01 -2.1752507984638214e-01</leafValues></_>
        <_>
          <internalNodes>
            0 -1 46 7.5360476970672607e-02</internalNodes>
          <leafValues>
            -5.7995885610580444e-01 2.0961757004261017e-01</leafValues></_>
        <_>
          <internalNodes>
            0 -1 33 7.2211101651191711e-02</internalNodes>
          <leafValues>
            -2.2792333364486694e-01 5.2717441320419312e-01</leafValues></_>
        <_>
          <internalNodes>
            0 -1 8 -1.8901184201240540e-02</internalNodes>
          <leafValues>
            2.3031112551689148e-01 -4.8729738593101501e-01</leafValues></_>
        <_>
          <internalNodes>
            0 -1 110 -8.4344565402716398e-04</internalNodes>
          <leafValues>
            -8.5078233480453491e-01 1.2636058032512665e-01</leafValues></_>
        <_>
          <internalNodes>
            0 -1 135 -4.2040664702653885e-03</internalNodes>
          <leafValues>
            1.8466058373451233e-01 -4.9683317542076111e-01</leafValues></_>
        <_>
          <internalNodes>
            0 -1 77 -2.1741848438978195e-02</internalNodes>
          <leafValues>
            -8.4922200441360474e-01 1.1731223016977310e-01</leafValues></_>
        <_>
          <internalNodes>
            0 -1 90 -5.7254638522863388e-03</internalNodes>
          <leafValues>
            5.6514739990234375e-01 -2.0844528079032898e-01</leafValues></_>
        <_>
          <internalNodes>
            0 -1 75 -1.6999691724777222e-03</internalNodes>
          <leafValues>
            1.7922548949718475e-01 -5.6290864944458008e-01</leafValues></_>
        <_>
          <internalNodes>
            0 -1 110 8.3494419232010841e-04</internalNodes>
          <leafValues>
            1.2891101837158203e-01 -6.9333589076995850e-01</leafValues></_>
        <_>
          <internalNodes>
            0 -1 32 -1.9403619226068258e-03</internalNodes>
          <leafValues>
            -7.4451094865798950e-01 1.0130477696657181e-01</leafValues></_></weakClassifiers></_>
    <!-- stage 8 -->
    <_>
      <maxWeakCount>14</maxWeakCount>
      <stageThreshold>-1.4899483919143677e+00</stageThreshold>
      <weakClassifiers>
        <_>
          <internalNodes>
            0 -1 22 7.4626444838941097e-03</internalNodes>
          <leafValues>
            -6.8067228794097900e-01 -1.7811704427003860e-02</leafValues></_>
        <_>
          <internalNodes>
            0 -1 0 3.6075770854949951e-02</internalNodes>
          <leafValues>
            -3.3405753970146179e-01 3.6984303593635559e-01</leafValues></_>
        <_>
          <internalNodes>
            0 -1 66 2.1965533494949341e-02</internalNodes>
          <leafValues>
            1.5864273905754089e-01 -7.5801932811737061e-01</leafValues></_>
        <_>
          <internalNodes>
            0 -1 134 4.7521069645881653e-03</internalNodes>
          <leafValues>
            -5.4183471202850342e-01 2.1529278159141541e-01</leafValues></_>
        <_>
          <internalNodes>
            0 -1 130 -5.4183630272746086e-03</internalNodes>
          <leafValues>
            2.1976946294307709e-01 -4.6974337100982666e-01</leafValues></_>
        <_>
          <internalNodes>
            0 -1 81 3.9118640124797821e-03</internalNodes>
          <leafValues>
            -2.6949280500411987e-01 3.6749431490898132e-01</leafValues></_>
        <_>
          <internalNodes>
            0 -1 44 -1.7982465215027332e-03</internalNodes>
          <leafValues>
            -7.8580719232559204e-01 1.2960439920425415e-01</leafValues></_>
        <_>
          <internalNodes>
            0 -1 69 5.4756994359195232e-03</internalNodes>
          <leafValues>
            -2.4956512451171875e-01 4.3691933155059814e-01</leafValues></_>
        <_>
          <internalNodes>
            0 -1 145 1.8823456484824419e-03</internalNodes>
          <leafValues>
            1.1567498743534088e-01 -7.8984010219573975e-01</leafValues></_>
        <_>
          <internalNodes>
            0 -1 14 2.8793108649551868e-03</internalNodes>
          <leafValues>
            -7.5230181217193604e-01 1.0574261844158173e-01</leafValues></_>
        <_>
          <internalNodes>
            0 -1 25 2.1126791834831238e-03</internalNodes>
          <leafValues>
            1.1505872011184692e-01 -6.9988214969635010e-01</leafValues></_>
        <_>
          <internalNodes>
            0 -1 127 7.8479591757059097e-03</internalNodes>
          <leafValues>
            -3.5336315631866455e-01 2.5101798772811890e-01</leafValues></_>
        <_>
          <internalNodes>
            0 -1 109 -1.7151605570688844e-03</internalNodes>
          <leafValues>
            2.6966238021850586e-01 -3.3290538191795349e-01</leafValues></_>
        <_>
          <internalNodes>
            0 -1 71 -2.1229730919003487e-03</internalNodes>
          <leafValues>
            -8.4362238645553589e-01 9.2392854392528534e-02</leafValues></_></weakClassifiers></_>
    <!-- stage 9 -->
    <_>
      <maxWeakCount>17</maxWeakCount>
      <stageThreshold>-1.6486656665802002e+00</stageThreshold>
      <weakClassifiers>
        <_>
          <internalNodes>
            0 -1 76 3.6849007010459900e-03</internalNodes>
          <leafValues>
            -6.1117446422576904e-01 5.7784911245107651e-02</leafValues></_>
        <_>
          <internalNodes>
            0 -1 39 4.8677530139684677e-03</internalNodes>
          <leafValues>
            -4.4383504986763000e-01 2.1513520181179047e-01</leafValues></_>
        <_>
          <internalNodes>
            0 -1 28 1.4785617589950562e-02</internalNodes>
          <leafValues>
            -4.5261141657829285e-01 2.3974099755287170e-01</leafValues></_>
        <_>
          <internalNodes>
            0 -1 6 2.3979783058166504e-02</internalNodes>
          <leafValues>
            -3.1322804093360901e-01 3.3885481953620911e-01</leafValues></_>
        <_>
          <internalNodes>
            0 -1 98 1.4771017245948315e-02</internalNodes>
          <leafValues>
            -7.4023461341857910e-01 1.4445705711841583e-01</leafValues></_>
        <_>
          <internalNodes>
            0 -1 88 1.7384584993124008e-02</internalNodes>
          <leafValues>
            1.0847335308790207e-01 -8.0385351181030273e-01</leafValues></_>
        <_>
          <internalNodes>
            0 -1 142 2.2697802633047104e-03</internalNodes>
          <leafValues>
            1.0700868070125580e-01 -6.8110102415084839e-01</leafValues></_>
        <_>
          <internalNodes>
            0 -1 49 2.0766140893101692e-02</internalNodes>
          <leafValues>
            -5.4911160469055176e-01 1.6445587575435638e-01</leafValues></_>
        <_>
          <internalNodes>
            0 -1 11 -9.9042896181344986e-03</internalNodes>
          <leafValues>
            -5.7999491691589355e-01 1.4592802524566650e-01</leafValues></_>
        <_>
          <internalNodes>
            0 -1 123 -1.7785767093300819e-02</internalNodes>
          <leafValues>
            3.0552560091018677e-01 -3.0232831835746765e-01</leafValues></_>
        <_>
          <internalNodes>
            0 -1 71 2.1976963616907597e-03</internalNodes>
          <leafValues>
            9.8309390246868134e-02 -7.6188319921493530e-01</leafValues></_>
        <_>
          <internalNodes>
            0 -1 96 2.7736155316233635e-03</internalNodes>
          <leafValues>
            -2.9511511325836182e-01 3.1385082006454468e-01</leafValues></_>
        <_>
          <internalNodes>
            0 -1 16 4.4848643243312836e-02</internalNodes>
          <leafValues>
            1.2486127763986588e-01 -7.3455929756164551e-01</leafValues></_>
        <_>
          <internalNodes>
            0 -1 53 3.7347361445426941e-02</internalNodes>
          <leafValues>
            1.4704021811485291e-01 -5.3234112262725830e-01</leafValues></_>
        <_>
          <internalNodes>
            0 -1 93 7.1634729392826557e-03</internalNodes>
          <leafValues>
            -1.9750858843326569e-01 4.4720965623855591e-01</leafValues></_>
        <_>
          <internalNodes>
            0 -1 141 -3.7967534735798836e-03</internalNodes>
          <leafValues>
            -7.8194195032119751e-01 1.1182174831628799e-01</leafValues></_>
        <_>
          <internalNodes>
            0 -1 105 4.3629566207528114e-03</internalNodes>
          <leafValues>
            -1.6400524973869324e-01 5.7291507720947266e-01</leafValues></_></weakClassifiers></_>
    <!-- stage 10 -->
    <_>
      <maxWeakCount>16</maxWeakCount>
      <stageThreshold>-1.5659072399139404e+00</stageThreshold>
      <weakClassifiers>
        <_>
          <internalNodes>
            0 -1 128 -6.8343067541718483e-03</internalNodes>
          <leafValues>
            5.0706565380096436e-02 -5.9042847156524658e-01</leafValues></_>
        <_>
          <internalNodes>
            0 -1 42 9.5534808933734894e-03</internalNodes>
          <leafValues>
            -4.6543550491333008e-01 1.7761911451816559e-01</leafValues></_>
        <_>
          <internalNodes>
            0 -1 63 1.0519555769860744e-02</internalNodes>
          <leafValues>
            -4.8475259542465210e-01 1.7986336350440979e-01</leafValues></_>
        <_>
          <internalNodes>
            0 -1 138 -7.5608519837260246e-03</internalNodes>
          <leafValues>
            2.3093083500862122e-01 -4.2767176032066345e-01</leafValues></_>
        <_>
          <internalNodes>
            0 -1 10 7.2468638420104980e-02</internalNodes>
          <leafValues>
            -2.4030636250972748e-01 4.0616017580032349e-01</leafValues></_>
        <_>
          <internalNodes>
            0 -1 56 6.4252205193042755e-03</internalNodes>
          <leafValues>
            -6.6470229625701904e-01 1.5153110027313232e-01</leafValues></_>
        <_>
          <internalNodes>
            0 -1 144 -1.3479551300406456e-02</internalNodes>
          <leafValues>
            3.3392488956451416e-01 -2.8162914514541626e-01</leafValues></_>
        <_>
          <internalNodes>
            0 -1 31 -1.5109751839190722e-03</internalNodes>
          <leafValues>
            -6.9531172513961792e-01 1.2016467750072479e-01</leafValues></_>
        <_>
          <internalNodes>
            0 -1 68 7.5522176921367645e-03</internalNodes>
          <leafValues>
            -5.9384983777999878e-01 1.1917353421449661e-01</leafValues></_>
        <_>
          <internalNodes>
            0 -1 80 -3.2182629220187664e-03</internalNodes>
          <leafValues>
            -7.6495802402496338e-01 9.9733240902423859e-02</leafValues></_>
        <_>
          <internalNodes>
            0 -1 70 -1.2337952852249146e-02</internalNodes>
          <leafValues>
            5.3244298696517944e-01 -1.6803263127803802e-01</leafValues></_>
        <_>
          <internalNodes>
            0 -1 148 -3.2144403085112572e-03</internalNodes>
          <leafValues>
            -7.3772883415222168e-01 1.2006543576717377e-01</leafValues></_>
        <_>
          <internalNodes>
            0 -1 94 6.9210957735776901e-03</internalNodes>
          <leafValues>
            -1.6381451487541199e-01 6.0073751211166382e-01</leafValues></_>
        <_>
          <internalNodes>
            0 -1 89 -1.5357327647507191e-03</internalNodes>
          <leafValues>
            -7.6343476772308350e-01 1.3424561917781830e-01</leafValues></_>
        <_>
          <internalNodes>
            0 -1 12 -1.9193276762962341e-02</internalNodes>
          <leafValues>
            3.7845191359519958e-01 -2.2810472548007965e-01</leafValues></_>
        <_>
          <internalNodes>
            0 -1 29 -1.2035416439175606e-03</internalNodes>
          <leafValues>
            -5.7237762212753296e-01 1.4662723243236542e-01</leafValues></_></weakClassifiers></_>
    <!-- stage 11 -->
    <_>
      <maxWeakCount>17</maxWeakCount>
      <stageThreshold>-1.4817411899566650e+00</stageThreshold>
      <weakClassifiers>
        <_>
          <internalNodes>
            0 -1 113 -8.1912288442254066e-03</internalNodes>
          <leafValues>
            3.6615133285522461e-02 -5.9006214141845703e-01</leafValues></_>
        <_>
          <internalNodes>
            0 -1 91 -8.6052631959319115e-03</internalNodes>
          <leafValues>
            5.0016158819198608e-01 -2.1230374276638031e-01</leafValues></_>
        <_>
          <internalNodes>
            0 -1 9 2.3889465257525444e-02</internalNodes>
          <leafValues>
            -3.2624259591102600e-01 2.8660014271736145e-01</leafValues></_>
        <_>
          <internalNodes>
            0 -1 55 3.0261366628110409e-03</internalNodes>
          <leafValues>
            -6.4141702651977539e-01 1.4363323152065277e-01</leafValues></_>
        <_>
          <internalNodes>
            0 -1 121 -2.4453743826597929e-03</internalNodes>
          <leafValues>
            -8.0345797538757324e-01 1.3257761299610138e-01</leafValues></_>
        <_>
          <internalNodes>
            0 -1 120 2.6176935061812401e-03</internalNodes>
          <leafValues>
            8.3307601511478424e-02 -8.7034934759140015e-01</leafValues></_>
        <_>
          <internalNodes>
            0 -1 136 -1.6156685887835920e-04</internalNodes>
          <leafValues>
            1.3458184897899628e-01 -5.1536941528320312e-01</leafValues></_>
        <_>
          <internalNodes>
            0 -1 84 -8.8040567934513092e-03</internalNodes>
          <leafValues>
            5.5899888277053833e-01 -1.4615963399410248e-01</leafValues></_>
        <_>
          <internalNodes>
            0 -1 52 9.4645703211426735e-03</internalNodes>
          <leafValues>
            -3.9610528945922852e-01 2.3564931750297546e-01</leafValues></_>
        <_>
          <internalNodes>
            0 -1 97 -1.2965952977538109e-02</internalNodes>
          <leafValues>
            1.5806557238101959e-01 -5.0650840997695923e-01</leafValues></_>
        <_>
          <internalNodes>
            0 -1 35 -3.1957041472196579e-02</internalNodes>
          <leafValues>
            -6.8183678388595581e-01 1.1311526596546173e-01</leafValues></_>
        <_>
          <internalNodes>
            0 -1 95 -2.4214759469032288e-03</internalNodes>
          <leafValues>
            2.1148698031902313e-01 -3.5317245125770569e-01</leafValues></_>
        <_>
          <internalNodes>
            0 -1 147 2.2172159515321255e-03</internalNodes>
          <leafValues>
            9.8403856158256531e-02 -7.0071256160736084e-01</leafValues></_>
        <_>
          <internalNodes>
            0 -1 137 -1.9630195572972298e-02</internalNodes>
          <leafValues>
            -6.7719817161560059e-01 9.6101075410842896e-02</leafValues></_>
        <_>
          <internalNodes>
            0 -1 40 2.7578333392739296e-03</internalNodes>
          <leafValues>
            8.9571505784988403e-02 -7.1801465749740601e-01</leafValues></_>
        <_>
          <internalNodes>
            0 -1 108 2.7480812277644873e-03</internalNodes>
          <leafValues>
            -2.0294678211212158e-01 4.2727285623550415e-01</leafValues></_>
        <_>
          <internalNodes>
            0 -1 111 -3.1674425117671490e-03</internalNodes>
          <leafValues>
            -6.1409825086593628e-01 1.1771074682474136e-01</leafValues></_></weakClassifiers></_>
    <!-- stage 12 -->
    <_>
      <maxWeakCount>20</maxWeakCount>
      <stageThreshold>-1.4550870656967163e+00</stageThreshold>
      <weakClassifiers>
        <_>
          <internalNodes>
            0 -1 85 3.0396576970815659e-02</internalNodes>
          <leafValues>
            -4.7333332896232605e-01 2.2666667401790619e-01</leafValues></_>
        <_>
          <internalNodes>
            0 -1 119 2.5621759705245495e-03</internalNodes>
          <leafValues>
            -3.6059948801994324e-01 2.4233108758926392e-01</leafValues></_>
        <_>
          <internalNodes>
            0 -1 74 -5.4280413314700127e-03</internalNodes>
          <leafValues>
            1.2545299530029297e-01 -6.1015528440475464e-01</leafValues></_>
        <_>
          <internalNodes>
            0 -1 27 5.1556420512497425e-03</internalNodes>
          <leafValues>
            -2.6807057857513428e-01 3.1562784314155579e-01</leafValues></_>
        <_>
          <internalNodes>
            0 -1 57 2.0009355619549751e-02</internalNodes>
          <leafValues>
            -1.5856760740280151e-01 4.8100510239601135e-01</leafValues></_>
        <_>
          <internalNodes>
            0 -1 59 -2.0907372236251831e-03</internalNodes>
          <leafValues>
            1.2318298220634460e-01 -6.3037627935409546e-01</leafValues></_>
        <_>
          <internalNodes>
            0 -1 38 -8.4788324311375618e-03</internalNodes>
          <leafValues>
            -6.7000895738601685e-01 9.5198392868041992e-02</leafValues></_>
        <_>
          <internalNodes>
            0 -1 104 4.2398683726787567e-03</internalNodes>
          <leafValues>
            -2.0677709579467773e-01 3.7578609585762024e-01</leafValues></_>
        <_>
          <internalNodes>
            0 -1 18 2.5526708923280239e-03</internalNodes>
          <leafValues>
            1.2860819697380066e-01 -6.0701030492782593e-01</leafValues></_>
        <_>
          <internalNodes>
            0 -1 61 1.9583879038691521e-03</internalNodes>
          <leafValues>
            -3.9542496204376221e-01 1.7815722525119781e-01</leafValues></_>
        <_>
          <internalNodes>
            0 -1 114 4.1600689291954041e-02</internalNodes>
          <leafValues>
            8.9573659002780914e-02 -7.6658487319946289e-01</leafValues></_>
        <_>
          <internalNodes>
            0 -1 106 2.1454705856740475e-03</internalNodes>
          <leafValues>
            -1.9630356132984161e-01 4.1884502768516541e-01</leafValues></_>
        <_>
          <internalNodes>
            0 -1 116 -5.0125760026276112e-03</internalNodes>
          <leafValues>
            4.2120710015296936e-01 -1.8536105751991272e-01</leafValues></_>
        <_>
          <internalNodes>
            0 -1 102 6.4176786690950394e-03</internalNodes>
          <leafValues>
            7.8765235841274261e-02 -8.9050537347793579e-01</leafValues></_>
        <_>
          <internalNodes>
            0 -1 101 -5.5497279390692711e-03</internalNodes>
          <leafValues>
            -8.0686336755752563e-01 6.4014345407485962e-02</leafValues></_>
        <_>
          <internalNodes>
            0 -1 132 -3.1377505511045456e-03</internalNodes>
          <leafValues>
            3.1391108036041260e-01 -2.1518708765506744e-01</leafValues></_>
        <_>
          <internalNodes>
            0 -1 79 1.1861700564622879e-02</internalNodes>
          <leafValues>
            7.9270079731941223e-02 -8.4590178728103638e-01</leafValues></_>
        <_>
          <internalNodes>
            0 -1 115 -8.5582170868292451e-04</internalNodes>
          <leafValues>
            -7.0128220319747925e-01 7.2040773928165436e-02</leafValues></_>
        <_>
          <internalNodes>
            0 -1 86 -3.5190302878618240e-03</internalNodes>
          <leafValues>
            -8.5721403360366821e-01 6.6172935068607330e-02</leafValues></_>
        <_>
          <internalNodes>
            0 -1 118 -1.3302098959684372e-03</internalNodes>
          <leafValues>
            2.1549849212169647e-01 -3.1879606842994690e-01</leafValues></_></weakClassifiers></_></stages>
  <features>
    <_>
      <rects>
        <_>
          0 0 6 11 -1.</_>
        <_>
          3 0 3 11 2.</_></rects>
      <tilted>0</tilted></_>
    <_>
      <rects>
        <_>
          0 0 6 13 -1.</_>
        <_>
          3 0 3 13 2.</_></rects>
      <tilted>0</tilted></_>
    <_>
      <rects>
        <_>
          0 0 6 14 -1.</_>
        <_>
          3 0 3 14 2.</_></rects>
      <tilted>0</tilted></_>
    <_>
      <rects>
        <_>
          0 0 8 21 -1.</_>
        <_>
          4 0 4 21 2.</_></rects>
      <tilted>0</tilted></_>
    <_>
      <rects>
        <_>
          0 0 10 4 -1.</_>
        <_>
          5 0 5 4 2.</_></rects>
      <tilted>0</tilted></_>
    <_>
      <rects>
        <_>
          0 0 10 18 -1.</_>
        <_>
          5 0 5 18 2.</_></rects>
      <tilted>0</tilted></_>
    <_>
      <rects>
        <_>
          0 0 24 1 -1.</_>
        <_>
          8 0 8 1 3.</_></rects>
      <tilted>0</tilted></_>
    <_>
      <rects>
        <_>
          0 0 24 3 -1.</_>
        <_>
          8 0 8 3 3.</_></rects>
      <tilted>0</tilted></_>
    <_>
      <rects>
        <_>
          0 0 16 8 -1.</_>
        <_>
          0 0 8 4 2.</_>
        <_>
          8 4 8 4 2.</_></rects>
      <tilted>0</tilted></_>
    <_>
      <rects>
        <_>
          0 1 10 3 -1.</_>
        <_>
          5 1 5 3 2.</_></rects>
      <tilted>0</tilted></_>
    <_>
      <rects>
        <_>
          0 2 12 16 -1.</_>
        <_>
          4 2 4 16 3.</_></rects>
      <tilted>0</tilted></_>
    <_>
      <rects>
        <_>
          0 3 4 6 -1.</_>
        <_>
          0 5 4 2 3.</_></rects>
      <tilted>0</tilted></_>
    <_>
      <rects>
        <_>
          0 21 12 3 -1.</_>
        <_>
          4 21 4 3 3.</_></rects>
      <tilted>0</tilted></_>
    <_>
      <rects>
        <_>
          1 4 19 6 -1.</_>
        <_>
          1 7 19 3 2.</_></rects>
      <tilted>0</tilted></_>
    <_>
      <rects>
        <_>
          1 5 8 12 -1.</_>
        <_>
          1 9 8 4 3.</_></rects>
      <tilted>0</tilted></_>
    <_>
      <rects>
        <_>
          1 7 16 10 -1.</_>
        <_>
          1 7 8 5 2.</_>
        <_>
          9 12 8 5 2.</_></rects>
      <tilted>0</tilted></_>
    <_>
      <rects>
        <_>
          1 9 10 12 -1.</_>
        <_>
          1 13 10 4 3.</_></rects>
      <tilted>0</tilted></_>
    <_>
      <rects>
        <_>
          1 11 12 2 -1.</_>
        <_>
          5 11 4 2 3.</_></rects>
      <tilted>0</tilted></_>
    <_>
      <rects>
        <_>
          1 17 6 3 -1.</_>
        <_>
          1 18 6 1 3.</_></rects>
      <tilted>0</tilted></_>
    <_>
      <rects>
        <_>
          1 18 21 4 -1.</_>
        <_>
          8 18 7 4 3.</_></rects>
      <tilted>0</tilted></_>
    <_>
      <rects>
        <_>
          2 0 8 8 -1.</_>
        <_>
          2 0 4 4 2.</_>
        <_>
          6 4 4 4 2.</_></rects>
      <tilted>0</tilted></_>
    <_>
      <rects>
        <_>
          2 2 8 6 -1.</_>
        <_>
          2 2 4 3 2.</_>
        <_>
          6 5 4 3 2.</_></rects>
      <tilted>0</tilted></_>
    <_>
      <rects>
        <_>
          2 6 6 6 -1.</_>
        <_>
          2 6 3 3 2.</_>
        <_>
          5 9 3 3 2.</_></rects>
      <tilted>0</tilted></_>
    <_>
      <rects>
        <_>
          2 7 11 6 -1.</_>
        <_>
          2 9 11 2 3.</_></rects>
      <tilted>0</tilted></_>
    <_>
      <rects>
        <_>
          2 10 19 4 -1.</_>
        <_>
          2 12 19 2 2.</_></rects>
      <tilted>0</tilted></_>
    <_>
      <rects>
        <_>
          2 11 4 3 -1.</_>
        <_>
          2 12 4 1 3.</_></rects>
      <tilted>0</tilted></_>
    <_>
      <rects>
        <_>
          2 12 6 3 -1.</_>
        <_>
          2 13 6 1 3.</_></rects>
      <tilted>0</tilted></_>
    <_>
      <rects>
        <_>
          2 19 8 2 -1.</_>
        <_>
          6 19 4 2 2.</_></rects>
      <tilted>0</tilted></_>
    <_>
      <rects>
        <_>
          3 0 12 6 -1.</_>
        <_>
          3 2 12 2 3.</_></rects>
      <tilted>0</tilted></_>
    <_>
      <rects>
        <_>
          3 1 3 2 -1.</_>
        <_>
          3 2 3 1 2.</_></rects>
      <tilted>0</tilted></_>
    <_>
      <rects>
        <_>
          3 12 4 3 -1.</_>
        <_>
          3 13 4 1 3.</_></rects>
      <tilted>0</tilted></_>
    <_>
      <rects>
        <_>
          3 14 2 3 -1.</_>
        <_>
          3 15 2 1 3.</_></rects>
      <tilted>0</tilted></_>
    <_>
      <rects>
        <_>
          3 15 3 3 -1.</_>
        <_>
          3 16 3 1 3.</_></rects>
      <tilted>0</tilted></_>
    <_>
      <rects>
        <_>
          3 19 21 4 -1.</_>
        <_>
          10 19 7 4 3.</_></rects>
      <tilted>0</tilted></_>
    <_>
      <rects>
        <_>
          4 0 19 2 -1.</_>
        <_>
          4 1 19 1 2.</_></rects>
      <tilted>0</tilted></_>
    <_>
      <rects>
        <_>
          4 4 20 9 -1.</_>
        <_>
          4 7 20 3 3.</_></rects>
      <tilted>0</tilted></_>
    <_>
      <rects>
        <_>
          4 5 14 6 -1.</_>
        <_>
          4 8 14 3 2.</_></rects>
      <tilted>0</tilted></_>
    <_>
      <rects>
        <_>
          4 6 16 9 -1.</_>
        <_>
          4 9 16 3 3.</_></rects>
      <tilted>0</tilted></_>
    <_>
      <rects>
        <_>
          4 15 4 6 -1.</_>
        <_>
          4 17 4 2 3.</_></rects>
      <tilted>0</tilted></_>
    <_>
      <rects>
        <_>
          4 16 8 6 -1.</_>
        <_>
          4 16 4 3 2.</_>
        <_>
          8 19 4 3 2.</_></rects>
      <tilted>0</tilted></_>
    <_>
      <rects>
        <_>
          4 21 4 3 -1.</_>
        <_>
          4 22 4 1 3.</_></rects>
      <tilted>0</tilted></_>
    <_>
      <rects>
        <_>
          5 1 14 6 -1.</_>
        <_>
          5 4 14 3 2.</_></rects>
      <tilted>0</tilted></_>
    <_>
      <rects>
        <_>
          5 6 15 2 -1.</_>
        <_>
          10 6 5 2 3.</_></rects>
      <tilted>0</tilted></_>
    <_>
      <rects>
        <_>
          5 10 5 8 -1.</_>
        <_>
          5 14 5 4 2.</_></rects>
      <tilted>0</tilted></_>
    <_>
      <rects>
        <_>
          5 17 2 3 -1.</_>
        <_>
          5 18 2 1 3.</_></rects>
      <tilted>0</tilted></_>
    <_>
      <rects>
        <_>
          5 17 8 6 -1.</_>
        <_>
          5 17 4 3 2.</_>
        <_>
          9 20 4 3 2.</_></rects>
      <tilted>0</tilted></_>
    <_>
      <rects>
        <_>
          6 1 17 21 -1.</_>
        <_>
          6 8 17 7 3.</_></rects>
      <tilted>0</tilted></_>
    <_>
      <rects>
        <_>
          6 3 13 2 -1.</_>
        <_>
          6 4 13 1 2.</_></rects>
      <tilted>0</tilted></_>
    <_>
      <rects>
        <_>
          6 5 8 3 -1.</_>
        <_>
          10 5 4 3 2.</_></rects>
      <tilted>0</tilted></_>
    <_>
      <rects>
        <_>
          6 5 4 15 -1.</_>
        <_>
          6 10 4 5 3.</_></rects>
      <tilted>0</tilted></_>
    <_>
      <rects>
        <_>
          6 5 12 10 -1.</_>
        <_>
          6 10 12 5 2.</_></rects>
      <tilted>0</tilted></_>
    <_>
      <rects>
        <_>
          6 6 12 2 -1.</_>
        <_>
          10 6 4 2 3.</_></rects>
      <tilted>0</tilted></_>
    <_>
      <rects>
        <_>
          6 6 15 3 -1.</_>
        <_>
          11 6 5 3 3.</_></rects>
      <tilted>0</tilted></_>
    <_>
      <rects>
        <_>
          7 0 12 12 -1.</_>
        <_>
          7 6 12 6 2.</_></rects>
      <tilted>0</tilted></_>
    <_>
      <rects>
        <_>
          7 2 12 9 -1.</_>
        <_>
          7 5 12 3 3.</_></rects>
      <tilted>0</tilted></_>
    <_>
      <rects>
        <_>
          7 3 2 12 -1.</_>
        <_>
          7 9 2 6 2.</_></rects>
      <tilted>0</tilted></_>
    <_>
      <rects>
        <_>
          7 4 11 6 -1.</_>
        <_>
          7 7 11 3 2.</_></rects>
      <tilted>0</tilted></_>
    <_>
      <rects>
        <_>
          7 6 9 2 -1.</_>
        <_>
          10 6 3 2 3.</_></rects>
      <tilted>0</tilted></_>
    <_>
      <rects>
        <_>
          7 6 3 6 -1.</_>
        <_>
          7 9 3 3 2.</_></rects>
      <tilted>0</tilted></_>
    <_>
      <rects>
        <_>
          7 10 4 10 -1.</_>
        <_>
          7 15 4 5 2.</_></rects>
      <tilted>0</tilted></_>
    <_>
      <rects>
        <_>
          7 21 11 2 -1.</_>
        <_>
          7 22 11 1 2.</_></rects>
      <tilted>0</tilted></_>
    <_>
      <rects>
        <_>
          8 0 15 1 -1.</_>
        <_>
          13 0 5 1 3.</_></rects>
      <tilted>0</tilted></_>
    <_>
      <rects>
        <_>
          8 0 10 10 -1.</_>
        <_>
          8 5 10 5 2.</_></rects>
      <tilted>0</tilted></_>
    <_>
      <rects>
        <_>
          8 1 16 6 -1.</_>
        <_>
          8 1 8 3 2.</_>
        <_>
          16 4 8 3 2.</_></rects>
      <tilted>0</tilted></_>
    <_>
      <rects>
        <_>
          8 3 9 5 -1.</_>
        <_>
          11 3 3 5 3.</_></rects>
      <tilted>0</tilted></_>
    <_>
      <rects>
        <_>
          8 5 9 3 -1.</_>
        <_>
          11 5 3 3 3.</_></rects>
      <tilted>0</tilted></_>
    <_>
      <rects>
        <_>
          8 5 7 14 -1.</_>
        <_>
          8 12 7 7 2.</_></rects>
      <tilted>0</tilted></_>
    <_>
      <rects>
        <_>
          8 6 9 1 -1.</_>
        <_>
          11 6 3 1 3.</_></rects>
      <tilted>0</tilted></_>
    <_>
      <rects>
        <_>
          8 8 16 6 -1.</_>
        <_>
          8 10 16 2 3.</_></rects>
      <tilted>0</tilted></_>
    <_>
      <rects>
        <_>
          8 13 9 3 -1.</_>
        <_>
          8 14 9 1 3.</_></rects>
      <tilted>0</tilted></_>
    <_>
      <rects>
        <_>
          8 15 10 3 -1.</_>
        <_>
          8 16 10 1 3.</_></rects>
      <tilted>0</tilted></_>
    <_>
      <rects>
        <_>
          9 0 3 3 -1.</_>
        <_>
          10 0 1 3 3.</_></rects>
      <tilted>0</tilted></_>
    <_>
      <rects>
        <_>
          9 0 6 2 -1.</_>
        <_>
          11 0 2 2 3.</_></rects>
      <tilted>0</tilted></_>
    <_>
      <rects>
        <_>
          9 0 7 8 -1.</_>
        <_>
          9 4 7 4 2.</_></rects>
      <tilted>0</tilted></_>
    <_>
      <rects>
        <_>
          9 1 5 8 -1.</_>
        <_>
          9 5 5 4 2.</_></rects>
      <tilted>0</tilted></_>
    <_>
      <rects>
        <_>
          9 4 5 6 -1.</_>
        <_>
          9 6 5 2 3.</_></rects>
      <tilted>0</tilted></_>
    <_>
      <rects>
        <_>
          9 5 4 2 -1.</_>
        <_>
          11 5 2 2 2.</_></rects>
      <tilted>0</tilted></_>
    <_>
      <rects>
        <_>
          9 5 8 6 -1.</_>
        <_>
          9 7 8 2 3.</_></rects>
      <tilted>0</tilted></_>
    <_>
      <rects>
        <_>
          9 6 6 7 -1.</_>
        <_>
          11 6 2 7 3.</_></rects>
      <tilted>0</tilted></_>
    <_>
      <rects>
        <_>
          9 7 6 2 -1.</_>
        <_>
          9 8 6 1 2.</_></rects>
      <tilted>0</tilted></_>
    <_>
      <rects>
        <_>
          9 7 6 3 -1.</_>
        <_>
          9 8 6 1 3.</_></rects>
      <tilted>0</tilted></_>
    <_>
      <rects>
        <_>
          9 14 8 3 -1.</_>
        <_>
          9 15 8 1 3.</_></rects>
      <tilted>0</tilted></_>
    <_>
      <rects>
        <_>
          9 22 7 2 -1.</_>
        <_>
          9 23 7 1 2.</_></rects>
      <tilted>0</tilted></_>
    <_>
      <rects>
        <_>
          10 3 6 16 -1.</_>
        <_>
          10 11 6 8 2.</_></rects>
      <tilted>0</tilted></_>
    <_>
      <rects>
        <_>
          10 4 6 5 -1.</_>
        <_>
          12 4 2 5 3.</_></rects>
      <tilted>0</tilted></_>
    <_>
      <rects>
        <_>
          10 5 6 8 -1.</_>
        <_>
          12 5 2 8 3.</_></rects>
      <tilted>0</tilted></_>
    <_>
      <rects>
        <_>
          10 7 5 3 -1.</_>
        <_>
          10 8 5 1 3.</_></rects>
      <tilted>0</tilted></_>
    <_>
      <rects>
        <_>
          10 7 6 3 -1.</_>
        <_>
          10 8 6 1 3.</_></rects>
      <tilted>0</tilted></_>
    <_>
      <rects>
        <_>
          10 7 7 8 -1.</_>
        <_>
          10 11 7 4 2.</_></rects>
      <tilted>0</tilted></_>
    <_>
      <rects>
        <_>
          10 8 4 2 -1.</_>
        <_>
          10 9 4 1 2.</_></rects>
      <tilted>0</tilted></_>
    <_>
      <rects>
        <_>
          10 11 5 3 -1.</_>
        <_>
          10 12 5 1 3.</_></rects>
      <tilted>0</tilted></_>
    <_>
      <rects>
        <_>
          10 12 5 3 -1.</_>
        <_>
          10 13 5 1 3.</_></rects>
      <tilted>0</tilted></_>
    <_>
      <rects>
        <_>
          10 13 4 2 -1.</_>
        <_>
          10 14 4 1 2.</_></rects>
      <tilted>0</tilted></_>
    <_>
      <rects>
        <_>
          10 14 8 3 -1.</_>
        <_>
          10 15 8 1 3.</_></rects>
      <tilted>0</tilted></_>
    <_>
      <rects>
        <_>
          10 15 5 3 -1.</_>
        <_>
          10 16 5 1 3.</_></rects>
      <tilted>0</tilted></_>
    <_>
      <rects>
        <_>
          10 18 10 4 -1.</_>
        <_>
          10 18 5 2 2.</_>
        <_>
          15 20 5 2 2.</_></rects>
      <tilted>0</tilted></_>
    <_>
      <rects>
        <_>
          10 20 5 3 -1.</_>
        <_>
          10 21 5 1 3.</_></rects>
      <tilted>0</tilted></_>
    <_>
      <rects>
        <_>
          11 0 7 15 -1.</_>
        <_>
          11 5 7 5 3.</_></rects>
      <tilted>0</tilted></_>
    <_>
      <rects>
        <_>
          11 5 9 8 -1.</_>
        <_>
          11 9 9 4 2.</_></rects>
      <tilted>0</tilted></_>
    <_>
      <rects>
        <_>
          11 6 12 4 -1.</_>
        <_>
          11 8 12 2 2.</_></rects>
      <tilted>0</tilted></_>
    <_>
      <rects>
        <_>
          11 12 4 3 -1.</_>
        <_>
          11 13 4 1 3.</_></rects>
      <tilted>0</tilted></_>
    <_>
      <rects>
        <_>
          11 14 3 7 -1.</_>
        <_>
          12 14 1 7 3.</_></rects>
      <tilted>0</tilted></_>
    <_>
      <rects>
        <_>
          11 14 3 8 -1.</_>
        <_>
          12 14 1 8 3.</_></rects>
      <tilted>0</tilted></_>
    <_>
      <rects>
        <_>
          11 14 2 3 -1.</_>
        <_>
          11 15 2 1 3.</_></rects>
      <tilted>0</tilted></_>
    <_>
      <rects>
        <_>
          11 14 4 3 -1.</_>
        <_>
          11 15 4 1 3.</_></rects>
      <tilted>0</tilted></_>
    <_>
      <rects>
        <_>
          11 15 3 3 -1.</_>
        <_>
          11 16 3 1 3.</_></rects>
      <tilted>0</tilted></_>
    <_>
      <rects>
        <_>
          11 15 4 3 -1.</_>
        <_>
          11 16 4 1 3.</_></rects>
      <tilted>0</tilted></_>
    <_>
      <rects>
        <_>
          11 16 4 3 -1.</_>
        <_>
          11 17 4 1 3.</_></rects>
      <tilted>0</tilted></_>
    <_>
      <rects>
        <_>
          11 17 3 3 -1.</_>
        <_>
          11 18 3 1 3.</_></rects>
      <tilted>0</tilted></_>
    <_>
      <rects>
        <_>
          11 22 7 2 -1.</_>
        <_>
          11 23 7 1 2.</_></rects>
      <tilted>0</tilted></_>
    <_>
      <rects>
        <_>
          12 0 3 1 -1.</_>
        <_>
          13 0 1 1 3.</_></rects>
      <tilted>0</tilted></_>
    <_>
      <rects>
        <_>
          12 0 11 2 -1.</_>
        <_>
          12 1 11 1 2.</_></rects>
      <tilted>0</tilted></_>
    <_>
      <rects>
        <_>
          12 1 12 6 -1.</_>
        <_>
          12 1 6 3 2.</_>
        <_>
          18 4 6 3 2.</_></rects>
      <tilted>0</tilted></_>
    <_>
      <rects>
        <_>
          12 3 4 5 -1.</_>
        <_>
          14 3 2 5 2.</_></rects>
      <tilted>0</tilted></_>
    <_>
      <rects>
        <_>
          12 6 4 18 -1.</_>
        <_>
          12 12 4 6 3.</_></rects>
      <tilted>0</tilted></_>
    <_>
      <rects>
        <_>
          12 8 4 2 -1.</_>
        <_>
          12 9 4 1 2.</_></rects>
      <tilted>0</tilted></_>
    <_>
      <rects>
        <_>
          12 15 5 3 -1.</_>
        <_>
          12 16 5 1 3.</_></rects>
      <tilted>0</tilted></_>
    <_>
      <rects>
        <_>
          12 16 3 2 -1.</_>
        <_>
          12 17 3 1 2.</_></rects>
      <tilted>0</tilted></_>
    <_>
      <rects>
        <_>
          12 22 7 2 -1.</_>
        <_>
          12 23 7 1 2.</_></rects>
      <tilted>0</tilted></_>
    <_>
      <rects>
        <_>
          13 10 6 4 -1.</_>
        <_>
          16 10 3 4 2.</_></rects>
      <tilted>0</tilted></_>
    <_>
      <rects>
        <_>
          14 0 3 3 -1.</_>
        <_>
          15 0 1 3 3.</_></rects>
      <tilted>0</tilted></_>
    <_>
      <rects>
        <_>
          14 0 3 4 -1.</_>
        <_>
          15 0 1 4 3.</_></rects>
      <tilted>0</tilted></_>
    <_>
      <rects>
        <_>
          14 0 10 8 -1.</_>
        <_>
          14 0 5 4 2.</_>
        <_>
          19 4 5 4 2.</_></rects>
      <tilted>0</tilted></_>
    <_>
      <rects>
        <_>
          14 5 8 18 -1.</_>
        <_>
          14 5 4 9 2.</_>
        <_>
          18 14 4 9 2.</_></rects>
      <tilted>0</tilted></_>
    <_>
      <rects>
        <_>
          14 16 6 6 -1.</_>
        <_>
          14 16 3 3 2.</_>
        <_>
          17 19 3 3 2.</_></rects>
      <tilted>0</tilted></_>
    <_>
      <rects>
        <_>
          15 5 5 12 -1.</_>
        <_>
          15 9 5 4 3.</_></rects>
      <tilted>0</tilted></_>
    <_>
      <rects>
        <_>
          15 5 9 15 -1.</_>
        <_>
          15 10 9 5 3.</_></rects>
      <tilted>0</tilted></_>
    <_>
      <rects>
        <_>
          15 7 9 6 -1.</_>
        <_>
          18 7 3 6 3.</_></rects>
      <tilted>0</tilted></_>
    <_>
      <rects>
        <_>
          15 16 6 6 -1.</_>
        <_>
          15 16 3 3 2.</_>
        <_>
          18 19 3 3 2.</_></rects>
      <tilted>0</tilted></_>
    <_>
      <rects>
        <_>
          16 0 8 3 -1.</_>
        <_>
          20 0 4 3 2.</_></rects>
      <tilted>0</tilted></_>
    <_>
      <rects>
        <_>
          16 1 8 2 -1.</_>
        <_>
          20 1 4 2 2.</_></rects>
      <tilted>0</tilted></_>
    <_>
      <rects>
        <_>
          16 1 8 19 -1.</_>
        <_>
          20 1 4 19 2.</_></rects>
      <tilted>0</tilted></_>
    <_>
      <rects>
        <_>
          16 5 2 3 -1.</_>
        <_>
          16 6 2 1 3.</_></rects>
      <tilted>0</tilted></_>
    <_>
      <rects>
        <_>
          16 5 3 12 -1.</_>
        <_>
          16 9 3 4 3.</_></rects>
      <tilted>0</tilted></_>
    <_>
      <rects>
        <_>
          16 6 3 4 -1.</_>
        <_>
          16 8 3 2 2.</_></rects>
      <tilted>0</tilted></_>
    <_>
      <rects>
        <_>
          16 6 6 6 -1.</_>
        <_>
          16 6 3 3 2.</_>
        <_>
          19 9 3 3 2.</_></rects>
      <tilted>0</tilted></_>
    <_>
      <rects>
        <_>
          16 11 6 2 -1.</_>
        <_>
          16 12 6 1 2.</_></rects>
      <tilted>0</tilted></_>
    <_>
      <rects>
        <_>
          16 11 7 6 -1.</_>
        <_>
          16 13 7 2 3.</_></rects>
      <tilted>0</tilted></_>
    <_>
      <rects>
        <_>
          17 5 6 8 -1.</_>
        <_>
          17 5 3 4 2.</_>
        <_>
          20 9 3 4 2.</_></rects>
      <tilted>0</tilted></_>
    <_>
      <rects>
        <_>
          17 6 6 6 -1.</_>
        <_>
          17 6 3 3 2.</_>
        <_>
          20 9 3 3 2.</_></rects>
      <tilted>0</tilted></_>
    <_>
      <rects>
        <_>
          17 9 6 12 -1.</_>
        <_>
          20 9 3 12 2.</_></rects>
      <tilted>0</tilted></_>
    <_>
      <rects>
        <_>
          17 18 5 3 -1.</_>
        <_>
          17 19 5 1 3.</_></rects>
      <tilted>0</tilted></_>
    <_>
      <rects>
        <_>
          17 21 5 3 -1.</_>
        <_>
          17 22 5 1 3.</_></rects>
      <tilted>0</tilted></_>
    <_>
      <rects>
        <_>
          18 0 6 4 -1.</_>
        <_>
          21 0 3 4 2.</_></rects>
      <tilted>0</tilted></_>
    <_>
      <rects>
        <_>
          18 1 6 4 -1.</_>
        <_>
          21 1 3 4 2.</_></rects>
      <tilted>0</tilted></_>
    <_>
      <rects>
        <_>
          18 13 3 3 -1.</_>
        <_>
          18 14 3 1 3.</_></rects>
      <tilted>0</tilted></_>
    <_>
      <rects>
        <_>
          18 14 5 3 -1.</_>
        <_>
          18 15 5 1 3.</_></rects>
      <tilted>0</tilted></_>
    <_>
      <rects>
        <_>
          19 12 3 3 -1.</_>
        <_>
          19 13 3 1 3.</_></rects>
      <tilted>0</tilted></_>
    <_>
      <rects>
        <_>
          19 12 5 3 -1.</_>
        <_>
          19 13 5 1 3.</_></rects>
      <tilted>0</tilted></_>
    <_>
      <rects>
        <_>
          19 14 3 2 -1.</_>
        <_>
          19 15 3 1 2.</_></rects>
      <tilted>0</tilted></_>
    <_>
      <rects>
        <_>
          20 0 4 10 -1.</_>
        <_>
          22 0 2 10 2.</_></rects>
      <tilted>0</tilted></_></features></cascade>
</opencv_storage>
